digraph Tree {
node [shape=box] ;
0 [label="Sex <= 0.5\ngini = 0.467\nsamples = 596\nvalue = [374, 222]"] ;
1 [label="Pclass <= 2.5\ngini = 0.4\nsamples = 206\nvalue = [57, 149]"] ;
0 -> 1 [labeldistance=2.5, labelangle=45, headlabel="True"] ;
2 [label="Age <= 2.5\ngini = 0.072\nsamples = 107\nvalue = [4, 103]"] ;
1 -> 2 ;
3 [label="Fare <= 88.775\ngini = 0.5\nsamples = 2\nvalue = [1, 1]"] ;
2 -> 3 ;
4 [label="gini = 0.0\nsamples = 1\nvalue = [0, 1]"] ;
3 -> 4 ;
5 [label="gini = 0.0\nsamples = 1\nvalue = [1, 0]"] ;
3 -> 5 ;
6 [label="Age <= 24.5\ngini = 0.056\nsamples = 105\nvalue = [3, 102]"] ;
2 -> 6 ;
7 [label="gini = 0.0\nsamples = 34\nvalue = [0, 34]"] ;
6 -> 7 ;
8 [label="Age <= 26.0\ngini = 0.081\nsamples = 71\nvalue = [3, 68]"] ;
6 -> 8 ;
9 [label="gini = 0.0\nsamples = 1\nvalue = [1, 0]"] ;
8 -> 9 ;
10 [label="Age <= 27.5\ngini = 0.056\nsamples = 70\nvalue = [2, 68]"] ;
8 -> 10 ;
11 [label="Fare <= 17.429\ngini = 0.444\nsamples = 3\nvalue = [1, 2]"] ;
10 -> 11 ;
12 [label="gini = 0.0\nsamples = 2\nvalue = [0, 2]"] ;
11 -> 12 ;
13 [label="gini = 0.0\nsamples = 1\nvalue = [1, 0]"] ;
11 -> 13 ;
14 [label="Age <= 49.5\ngini = 0.029\nsamples = 67\nvalue = [1, 66]"] ;
10 -> 14 ;
15 [label="gini = 0.0\nsamples = 54\nvalue = [0, 54]"] ;
14 -> 15 ;
16 [label="Age <= 51.5\ngini = 0.142\nsamples = 13\nvalue = [1, 12]"] ;
14 -> 16 ;
17 [label="Fare <= 19.606\ngini = 0.444\nsamples = 3\nvalue = [1, 2]"] ;
16 -> 17 ;
18 [label="gini = 0.0\nsamples = 2\nvalue = [0, 2]"] ;
17 -> 18 ;
19 [label="gini = 0.0\nsamples = 1\nvalue = [1, 0]"] ;
17 -> 19 ;
20 [label="gini = 0.0\nsamples = 10\nvalue = [0, 10]"] ;
16 -> 20 ;
21 [label="Fare <= 23.35\ngini = 0.498\nsamples = 99\nvalue = [53, 46]"] ;
1 -> 21 ;
22 [label="Age <= 36.5\ngini = 0.494\nsamples = 81\nvalue = [36, 45]"] ;
21 -> 22 ;
23 [label="Fare <= 14.852\ngini = 0.486\nsamples = 77\nvalue = [32, 45]"] ;
22 -> 23 ;
24 [label="Fare <= 7.763\ngini = 0.5\nsamples = 53\nvalue = [26, 27]"] ;
23 -> 24 ;
25 [label="Fare <= 6.987\ngini = 0.363\nsamples = 21\nvalue = [5, 16]"] ;
24 -> 25 ;
26 [label="gini = 0.0\nsamples = 1\nvalue = [1, 0]"] ;
25 -> 26 ;
27 [label="Parch <= 1.0\ngini = 0.32\nsamples = 20\nvalue = [4, 16]"] ;
25 -> 27 ;
28 [label="Fare <= 7.59\ngini = 0.266\nsamples = 19\nvalue = [3, 16]"] ;
27 -> 28 ;
29 [label="gini = 0.0\nsamples = 6\nvalue = [0, 6]"] ;
28 -> 29 ;
30 [label="Fare <= 7.64\ngini = 0.355\nsamples = 13\nvalue = [3, 10]"] ;
28 -> 30 ;
31 [label="gini = 0.0\nsamples = 1\nvalue = [1, 0]"] ;
30 -> 31 ;
32 [label="Fare <= 7.744\ngini = 0.278\nsamples = 12\nvalue = [2, 10]"] ;
30 -> 32 ;
33 [label="gini = 0.0\nsamples = 4\nvalue = [0, 4]"] ;
32 -> 33 ;
34 [label="Age <= 21.5\ngini = 0.375\nsamples = 8\nvalue = [2, 6]"] ;
32 -> 34 ;
35 [label="gini = 0.0\nsamples = 1\nvalue = [1, 0]"] ;
34 -> 35 ;
36 [label="Age <= 25.85\ngini = 0.245\nsamples = 7\nvalue = [1, 6]"] ;
34 -> 36 ;
37 [label="gini = 0.0\nsamples = 1\nvalue = [0, 1]"] ;
36 -> 37 ;
38 [label="gini = 0.278\nsamples = 6\nvalue = [1, 5]"] ;
36 -> 38 ;
39 [label="gini = 0.0\nsamples = 1\nvalue = [1, 0]"] ;
27 -> 39 ;
40 [label="Parch <= 0.5\ngini = 0.451\nsamples = 32\nvalue = [21, 11]"] ;
24 -> 40 ;
41 [label="Age <= 25.5\ngini = 0.351\nsamples = 22\nvalue = [17, 5]"] ;
40 -> 41 ;
42 [label="Age <= 16.0\ngini = 0.142\nsamples = 13\nvalue = [12, 1]"] ;
41 -> 42 ;
43 [label="Age <= 14.75\ngini = 0.444\nsamples = 3\nvalue = [2, 1]"] ;
42 -> 43 ;
44 [label="gini = 0.0\nsamples = 2\nvalue = [2, 0]"] ;
43 -> 44 ;
45 [label="gini = 0.0\nsamples = 1\nvalue = [0, 1]"] ;
43 -> 45 ;
46 [label="gini = 0.0\nsamples = 10\nvalue = [10, 0]"] ;
42 -> 46 ;
47 [label="Fare <= 7.888\ngini = 0.494\nsamples = 9\nvalue = [5, 4]"] ;
41 -> 47 ;
48 [label="gini = 0.0\nsamples = 2\nvalue = [0, 2]"] ;
47 -> 48 ;
49 [label="Age <= 27.5\ngini = 0.408\nsamples = 7\nvalue = [5, 2]"] ;
47 -> 49 ;
50 [label="gini = 0.0\nsamples = 1\nvalue = [0, 1]"] ;
49 -> 50 ;
51 [label="Age <= 30.35\ngini = 0.278\nsamples = 6\nvalue = [5, 1]"] ;
49 -> 51 ;
52 [label="gini = 0.0\nsamples = 5\nvalue = [5, 0]"] ;
51 -> 52 ;
53 [label="gini = 0.0\nsamples = 1\nvalue = [0, 1]"] ;
51 -> 53 ;
54 [label="Age <= 27.5\ngini = 0.48\nsamples = 10\nvalue = [4, 6]"] ;
40 -> 54 ;
55 [label="Fare <= 13.935\ngini = 0.375\nsamples = 8\nvalue = [2, 6]"] ;
54 -> 55 ;
56 [label="Age <= 3.0\ngini = 0.245\nsamples = 7\nvalue = [1, 6]"] ;
55 -> 56 ;
57 [label="Fare <= 11.375\ngini = 0.5\nsamples = 2\nvalue = [1, 1]"] ;
56 -> 57 ;
58 [label="gini = 0.0\nsamples = 1\nvalue = [1, 0]"] ;
57 -> 58 ;
59 [label="gini = 0.0\nsamples = 1\nvalue = [0, 1]"] ;
57 -> 59 ;
60 [label="gini = 0.0\nsamples = 5\nvalue = [0, 5]"] ;
56 -> 60 ;
61 [label="gini = 0.0\nsamples = 1\nvalue = [1, 0]"] ;
55 -> 61 ;
62 [label="gini = 0.0\nsamples = 2\nvalue = [2, 0]"] ;
54 -> 62 ;
63 [label="Age <= 29.35\ngini = 0.375\nsamples = 24\nvalue = [6, 18]"] ;
23 -> 63 ;
64 [label="SibSp <= 2.5\ngini = 0.486\nsamples = 12\nvalue = [5, 7]"] ;
63 -> 64 ;
65 [label="Parch <= 0.5\ngini = 0.42\nsamples = 10\nvalue = [3, 7]"] ;
64 -> 65 ;
66 [label="Fare <= 15.975\ngini = 0.444\nsamples = 3\nvalue = [2, 1]"] ;
65 -> 66 ;
67 [label="gini = 0.0\nsamples = 1\nvalue = [0, 1]"] ;
66 -> 67 ;
68 [label="gini = 0.0\nsamples = 2\nvalue = [2, 0]"] ;
66 -> 68 ;
69 [label="Parch <= 3.5\ngini = 0.245\nsamples = 7\nvalue = [1, 6]"] ;
65 -> 69 ;
70 [label="gini = 0.0\nsamples = 6\nvalue = [0, 6]"] ;
69 -> 70 ;
71 [label="gini = 0.0\nsamples = 1\nvalue = [1, 0]"] ;
69 -> 71 ;
72 [label="gini = 0.0\nsamples = 2\nvalue = [2, 0]"] ;
64 -> 72 ;
73 [label="Age <= 30.35\ngini = 0.153\nsamples = 12\nvalue = [1, 11]"] ;
63 -> 73 ;
74 [label="gini = 0.0\nsamples = 7\nvalue = [0, 7]"] ;
73 -> 74 ;
75 [label="Age <= 32.0\ngini = 0.32\nsamples = 5\nvalue = [1, 4]"] ;
73 -> 75 ;
76 [label="Fare <= 19.262\ngini = 0.5\nsamples = 2\nvalue = [1, 1]"] ;
75 -> 76 ;
77 [label="gini = 0.0\nsamples = 1\nvalue = [1, 0]"] ;
76 -> 77 ;
78 [label="gini = 0.0\nsamples = 1\nvalue = [0, 1]"] ;
76 -> 78 ;
79 [label="gini = 0.0\nsamples = 3\nvalue = [0, 3]"] ;
75 -> 79 ;
80 [label="gini = 0.0\nsamples = 4\nvalue = [4, 0]"] ;
22 -> 80 ;
81 [label="Age <= 7.0\ngini = 0.105\nsamples = 18\nvalue = [17, 1]"] ;
21 -> 81 ;
82 [label="Age <= 3.5\ngini = 0.444\nsamples = 3\nvalue = [2, 1]"] ;
81 -> 82 ;
83 [label="gini = 0.0\nsamples = 2\nvalue = [2, 0]"] ;
82 -> 83 ;
84 [label="gini = 0.0\nsamples = 1\nvalue = [0, 1]"] ;
82 -> 84 ;
85 [label="gini = 0.0\nsamples = 15\nvalue = [15, 0]"] ;
81 -> 85 ;
86 [label="Age <= 3.5\ngini = 0.304\nsamples = 390\nvalue = [317, 73]"] ;
0 -> 86 [labeldistance=2.5, labelangle=-45, headlabel="False"] ;
87 [label="SibSp <= 3.0\ngini = 0.355\nsamples = 13\nvalue = [3, 10]"] ;
86 -> 87 ;
88 [label="gini = 0.0\nsamples = 9\nvalue = [0, 9]"] ;
87 -> 88 ;
89 [label="Age <= 2.5\ngini = 0.375\nsamples = 4\nvalue = [3, 1]"] ;
87 -> 89 ;
90 [label="gini = 0.0\nsamples = 3\nvalue = [3, 0]"] ;
89 -> 90 ;
91 [label="gini = 0.0\nsamples = 1\nvalue = [0, 1]"] ;
89 -> 91 ;
92 [label="Fare <= 52.277\ngini = 0.278\nsamples = 377\nvalue = [314, 63]"] ;
86 -> 92 ;
93 [label="Age <= 77.0\ngini = 0.239\nsamples = 332\nvalue = [286, 46]"] ;
92 -> 93 ;
94 [label="Pclass <= 1.5\ngini = 0.235\nsamples = 331\nvalue = [286, 45]"] ;
93 -> 94 ;
95 [label="Fare <= 30.75\ngini = 0.357\nsamples = 43\nvalue = [33, 10]"] ;
94 -> 95 ;
96 [label="Fare <= 26.144\ngini = 0.444\nsamples = 27\nvalue = [18, 9]"] ;
95 -> 96 ;
97 [label="gini = 0.0\nsamples = 6\nvalue = [6, 0]"] ;
96 -> 97 ;
98 [label="Age <= 53.0\ngini = 0.49\nsamples = 21\nvalue = [12, 9]"] ;
96 -> 98 ;
99 [label="Age <= 39.5\ngini = 0.48\nsamples = 15\nvalue = [6, 9]"] ;
98 -> 99 ;
100 [label="Fare <= 30.25\ngini = 0.496\nsamples = 11\nvalue = [6, 5]"] ;
99 -> 100 ;
101 [label="Fare <= 26.419\ngini = 0.444\nsamples = 9\nvalue = [6, 3]"] ;
100 -> 101 ;
102 [label="gini = 0.0\nsamples = 1\nvalue = [0, 1]"] ;
101 -> 102 ;
103 [label="Fare <= 28.725\ngini = 0.375\nsamples = 8\nvalue = [6, 2]"] ;
101 -> 103 ;
104 [label="gini = 0.0\nsamples = 4\nvalue = [4, 0]"] ;
103 -> 104 ;
105 [label="Age <= 29.35\ngini = 0.5\nsamples = 4\nvalue = [2, 2]"] ;
103 -> 105 ;
106 [label="gini = 0.0\nsamples = 1\nvalue = [1, 0]"] ;
105 -> 106 ;
107 [label="Age <= 33.35\ngini = 0.444\nsamples = 3\nvalue = [1, 2]"] ;
105 -> 107 ;
108 [label="gini = 0.0\nsamples = 2\nvalue = [0, 2]"] ;
107 -> 108 ;
109 [label="gini = 0.0\nsamples = 1\nvalue = [1, 0]"] ;
107 -> 109 ;
110 [label="gini = 0.0\nsamples = 2\nvalue = [0, 2]"] ;
100 -> 110 ;
111 [label="gini = 0.0\nsamples = 4\nvalue = [0, 4]"] ;
99 -> 111 ;
112 [label="gini = 0.0\nsamples = 6\nvalue = [6, 0]"] ;
98 -> 112 ;
113 [label="Age <= 55.0\ngini = 0.117\nsamples = 16\nvalue = [15, 1]"] ;
95 -> 113 ;
114 [label="gini = 0.0\nsamples = 14\nvalue = [14, 0]"] ;
113 -> 114 ;
115 [label="Fare <= 34.5\ngini = 0.5\nsamples = 2\nvalue = [1, 1]"] ;
113 -> 115 ;
116 [label="gini = 0.0\nsamples = 1\nvalue = [1, 0]"] ;
115 -> 116 ;
117 [label="gini = 0.0\nsamples = 1\nvalue = [0, 1]"] ;
115 -> 117 ;
118 [label="Age <= 13.0\ngini = 0.214\nsamples = 288\nvalue = [253, 35]"] ;
94 -> 118 ;
119 [label="SibSp <= 2.5\ngini = 0.426\nsamples = 13\nvalue = [9, 4]"] ;
118 -> 119 ;
120 [label="Parch <= 0.5\ngini = 0.32\nsamples = 5\nvalue = [1, 4]"] ;
119 -> 120 ;
121 [label="Age <= 11.5\ngini = 0.5\nsamples = 2\nvalue = [1, 1]"] ;
120 -> 121 ;
122 [label="gini = 0.0\nsamples = 1\nvalue = [1, 0]"] ;
121 -> 122 ;
123 [label="gini = 0.0\nsamples = 1\nvalue = [0, 1]"] ;
121 -> 123 ;
124 [label="gini = 0.0\nsamples = 3\nvalue = [0, 3]"] ;
120 -> 124 ;
125 [label="gini = 0.0\nsamples = 8\nvalue = [8, 0]"] ;
119 -> 125 ;
126 [label="Age <= 32.25\ngini = 0.2\nsamples = 275\nvalue = [244, 31]"] ;
118 -> 126 ;
127 [label="Age <= 31.5\ngini = 0.226\nsamples = 200\nvalue = [174, 26]"] ;
126 -> 127 ;
128 [label="Fare <= 23.625\ngini = 0.204\nsamples = 191\nvalue = [169, 22]"] ;
127 -> 128 ;
129 [label="Fare <= 22.887\ngini = 0.219\nsamples = 176\nvalue = [154, 22]"] ;
128 -> 129 ;
130 [label="Fare <= 7.798\ngini = 0.211\nsamples = 175\nvalue = [154, 21]"] ;
129 -> 130 ;
131 [label="Fare <= 7.746\ngini = 0.274\nsamples = 61\nvalue = [51, 10]"] ;
130 -> 131 ;
132 [label="Age <= 26.75\ngini = 0.188\nsamples = 38\nvalue = [34, 4]"] ;
131 -> 132 ;
133 [label="Fare <= 2.006\ngini = 0.305\nsamples = 16\nvalue = [13, 3]"] ;
132 -> 133 ;
134 [label="gini = 0.0\nsamples = 1\nvalue = [0, 1]"] ;
133 -> 134 ;
135 [label="Fare <= 7.227\ngini = 0.231\nsamples = 15\nvalue = [13, 2]"] ;
133 -> 135 ;
136 [label="Fare <= 7.133\ngini = 0.375\nsamples = 8\nvalue = [6, 2]"] ;
135 -> 136 ;
137 [label="gini = 0.0\nsamples = 5\nvalue = [5, 0]"] ;
136 -> 137 ;
138 [label="Age <= 24.5\ngini = 0.444\nsamples = 3\nvalue = [1, 2]"] ;
136 -> 138 ;
139 [label="gini = 0.0\nsamples = 2\nvalue = [0, 2]"] ;
138 -> 139 ;
140 [label="gini = 0.0\nsamples = 1\nvalue = [1, 0]"] ;
138 -> 140 ;
141 [label="gini = 0.0\nsamples = 7\nvalue = [7, 0]"] ;
135 -> 141 ;
142 [label="Fare <= 7.227\ngini = 0.087\nsamples = 22\nvalue = [21, 1]"] ;
132 -> 142 ;
143 [label="gini = 0.0\nsamples = 10\nvalue = [10, 0]"] ;
142 -> 143 ;
144 [label="Fare <= 7.24\ngini = 0.153\nsamples = 12\nvalue = [11, 1]"] ;
142 -> 144 ;
145 [label="Age <= 29.1\ngini = 0.219\nsamples = 8\nvalue = [7, 1]"] ;
144 -> 145 ;
146 [label="gini = 0.0\nsamples = 1\nvalue = [1, 0]"] ;
145 -> 146 ;
147 [label="Age <= 29.85\ngini = 0.245\nsamples = 7\nvalue = [6, 1]"] ;
145 -> 147 ;
148 [label="gini = 0.278\nsamples = 6\nvalue = [5, 1]"] ;
147 -> 148 ;
149 [label="gini = 0.0\nsamples = 1\nvalue = [1, 0]"] ;
147 -> 149 ;
150 [label="gini = 0.0\nsamples = 4\nvalue = [4, 0]"] ;
144 -> 150 ;
151 [label="Age <= 20.0\ngini = 0.386\nsamples = 23\nvalue = [17, 6]"] ;
131 -> 151 ;
152 [label="gini = 0.0\nsamples = 4\nvalue = [4, 0]"] ;
151 -> 152 ;
153 [label="Age <= 21.5\ngini = 0.432\nsamples = 19\nvalue = [13, 6]"] ;
151 -> 153 ;
154 [label="gini = 0.0\nsamples = 1\nvalue = [0, 1]"] ;
153 -> 154 ;
155 [label="Age <= 29.35\ngini = 0.401\nsamples = 18\nvalue = [13, 5]"] ;
153 -> 155 ;
156 [label="Age <= 24.5\ngini = 0.49\nsamples = 7\nvalue = [4, 3]"] ;
155 -> 156 ;
157 [label="gini = 0.0\nsamples = 2\nvalue = [2, 0]"] ;
156 -> 157 ;
158 [label="SibSp <= 0.5\ngini = 0.48\nsamples = 5\nvalue = [2, 3]"] ;
156 -> 158 ;
159 [label="Fare <= 7.763\ngini = 0.5\nsamples = 4\nvalue = [2, 2]"] ;
158 -> 159 ;
160 [label="gini = 0.0\nsamples = 1\nvalue = [0, 1]"] ;
159 -> 160 ;
161 [label="Age <= 26.5\ngini = 0.444\nsamples = 3\nvalue = [2, 1]"] ;
159 -> 161 ;
162 [label="gini = 0.0\nsamples = 1\nvalue = [1, 0]"] ;
161 -> 162 ;
163 [label="Age <= 27.5\ngini = 0.5\nsamples = 2\nvalue = [1, 1]"] ;
161 -> 163 ;
164 [label="gini = 0.0\nsamples = 1\nvalue = [0, 1]"] ;
163 -> 164 ;
165 [label="gini = 0.0\nsamples = 1\nvalue = [1, 0]"] ;
163 -> 165 ;
166 [label="gini = 0.0\nsamples = 1\nvalue = [0, 1]"] ;
158 -> 166 ;
167 [label="Fare <= 7.763\ngini = 0.298\nsamples = 11\nvalue = [9, 2]"] ;
155 -> 167 ;
168 [label="Age <= 30.35\ngini = 0.219\nsamples = 8\nvalue = [7, 1]"] ;
167 -> 168 ;
169 [label="SibSp <= 0.5\ngini = 0.245\nsamples = 7\nvalue = [6, 1]"] ;
168 -> 169 ;
170 [label="gini = 0.278\nsamples = 6\nvalue = [5, 1]"] ;
169 -> 170 ;
171 [label="gini = 0.0\nsamples = 1\nvalue = [1, 0]"] ;
169 -> 171 ;
172 [label="gini = 0.0\nsamples = 1\nvalue = [1, 0]"] ;
168 -> 172 ;
173 [label="Age <= 30.35\ngini = 0.444\nsamples = 3\nvalue = [2, 1]"] ;
167 -> 173 ;
174 [label="gini = 0.5\nsamples = 2\nvalue = [1, 1]"] ;
173 -> 174 ;
175 [label="gini = 0.0\nsamples = 1\nvalue = [1, 0]"] ;
173 -> 175 ;
176 [label="Age <= 30.5\ngini = 0.174\nsamples = 114\nvalue = [103, 11]"] ;
130 -> 176 ;
177 [label="Age <= 20.5\ngini = 0.161\nsamples = 113\nvalue = [103, 10]"] ;
176 -> 177 ;
178 [label="SibSp <= 0.5\ngini = 0.293\nsamples = 28\nvalue = [23, 5]"] ;
177 -> 178 ;
179 [label="Fare <= 8.356\ngini = 0.219\nsamples = 24\nvalue = [21, 3]"] ;
178 -> 179 ;
180 [label="Fare <= 7.973\ngini = 0.346\nsamples = 9\nvalue = [7, 2]"] ;
179 -> 180 ;
181 [label="gini = 0.0\nsamples = 4\nvalue = [4, 0]"] ;
180 -> 181 ;
182 [label="Age <= 19.5\ngini = 0.48\nsamples = 5\nvalue = [3, 2]"] ;
180 -> 182 ;
183 [label="Age <= 17.5\ngini = 0.5\nsamples = 4\nvalue = [2, 2]"] ;
182 -> 183 ;
184 [label="gini = 0.5\nsamples = 2\nvalue = [1, 1]"] ;
183 -> 184 ;
185 [label="gini = 0.5\nsamples = 2\nvalue = [1, 1]"] ;
183 -> 185 ;
186 [label="gini = 0.0\nsamples = 1\nvalue = [1, 0]"] ;
182 -> 186 ;
187 [label="Pclass <= 2.5\ngini = 0.124\nsamples = 15\nvalue = [14, 1]"] ;
179 -> 187 ;
188 [label="Fare <= 11.0\ngini = 0.245\nsamples = 7\nvalue = [6, 1]"] ;
187 -> 188 ;
189 [label="Age <= 17.5\ngini = 0.444\nsamples = 3\nvalue = [2, 1]"] ;
188 -> 189 ;
190 [label="gini = 0.0\nsamples = 1\nvalue = [1, 0]"] ;
189 -> 190 ;
191 [label="gini = 0.5\nsamples = 2\nvalue = [1, 1]"] ;
189 -> 191 ;
192 [label="gini = 0.0\nsamples = 4\nvalue = [4, 0]"] ;
188 -> 192 ;
193 [label="gini = 0.0\nsamples = 8\nvalue = [8, 0]"] ;
187 -> 193 ;
194 [label="Age <= 19.0\ngini = 0.5\nsamples = 4\nvalue = [2, 2]"] ;
178 -> 194 ;
195 [label="gini = 0.0\nsamples = 2\nvalue = [2, 0]"] ;
194 -> 195 ;
196 [label="gini = 0.0\nsamples = 2\nvalue = [0, 2]"] ;
194 -> 196 ;
197 [label="Age <= 25.5\ngini = 0.111\nsamples = 85\nvalue = [80, 5]"] ;
177 -> 197 ;
198 [label="gini = 0.0\nsamples = 24\nvalue = [24, 0]"] ;
197 -> 198 ;
199 [label="Fare <= 8.081\ngini = 0.15\nsamples = 61\nvalue = [56, 5]"] ;
197 -> 199 ;
200 [label="Age <= 29.35\ngini = 0.062\nsamples = 31\nvalue = [30, 1]"] ;
199 -> 200 ;
201 [label="Age <= 28.5\ngini = 0.219\nsamples = 8\nvalue = [7, 1]"] ;
200 -> 201 ;
202 [label="gini = 0.0\nsamples = 7\nvalue = [7, 0]"] ;
201 -> 202 ;
203 [label="gini = 0.0\nsamples = 1\nvalue = [0, 1]"] ;
201 -> 203 ;
204 [label="gini = 0.0\nsamples = 23\nvalue = [23, 0]"] ;
200 -> 204 ;
205 [label="Fare <= 8.806\ngini = 0.231\nsamples = 30\nvalue = [26, 4]"] ;
199 -> 205 ;
206 [label="gini = 0.0\nsamples = 1\nvalue = [0, 1]"] ;
205 -> 206 ;
207 [label="SibSp <= 0.5\ngini = 0.185\nsamples = 29\nvalue = [26, 3]"] ;
205 -> 207 ;
208 [label="Age <= 26.5\ngini = 0.278\nsamples = 18\nvalue = [15, 3]"] ;
207 -> 208 ;
209 [label="Fare <= 14.644\ngini = 0.5\nsamples = 2\nvalue = [1, 1]"] ;
208 -> 209 ;
210 [label="gini = 0.0\nsamples = 1\nvalue = [1, 0]"] ;
209 -> 210 ;
211 [label="gini = 0.0\nsamples = 1\nvalue = [0, 1]"] ;
209 -> 211 ;
212 [label="Age <= 29.35\ngini = 0.219\nsamples = 16\nvalue = [14, 2]"] ;
208 -> 212 ;
213 [label="gini = 0.0\nsamples = 7\nvalue = [7, 0]"] ;
212 -> 213 ;
214 [label="Pclass <= 2.5\ngini = 0.346\nsamples = 9\nvalue = [7, 2]"] ;
212 -> 214 ;
215 [label="Age <= 29.85\ngini = 0.48\nsamples = 5\nvalue = [3, 2]"] ;
214 -> 215 ;
216 [label="gini = 0.0\nsamples = 2\nvalue = [0, 2]"] ;
215 -> 216 ;
217 [label="gini = 0.0\nsamples = 3\nvalue = [3, 0]"] ;
215 -> 217 ;
218 [label="gini = 0.0\nsamples = 4\nvalue = [4, 0]"] ;
214 -> 218 ;
219 [label="gini = 0.0\nsamples = 11\nvalue = [11, 0]"] ;
207 -> 219 ;
220 [label="gini = 0.0\nsamples = 1\nvalue = [0, 1]"] ;
176 -> 220 ;
221 [label="gini = 0.0\nsamples = 1\nvalue = [0, 1]"] ;
129 -> 221 ;
222 [label="gini = 0.0\nsamples = 15\nvalue = [15, 0]"] ;
128 -> 222 ;
223 [label="Fare <= 20.925\ngini = 0.494\nsamples = 9\nvalue = [5, 4]"] ;
127 -> 223 ;
224 [label="Fare <= 8.206\ngini = 0.469\nsamples = 8\nvalue = [5, 3]"] ;
223 -> 224 ;
225 [label="Fare <= 7.802\ngini = 0.5\nsamples = 6\nvalue = [3, 3]"] ;
224 -> 225 ;
226 [label="gini = 0.0\nsamples = 1\nvalue = [1, 0]"] ;
225 -> 226 ;
227 [label="Fare <= 7.875\ngini = 0.48\nsamples = 5\nvalue = [2, 3]"] ;
225 -> 227 ;
228 [label="gini = 0.0\nsamples = 1\nvalue = [0, 1]"] ;
227 -> 228 ;
229 [label="Fare <= 7.91\ngini = 0.5\nsamples = 4\nvalue = [2, 2]"] ;
227 -> 229 ;
230 [label="gini = 0.0\nsamples = 1\nvalue = [1, 0]"] ;
229 -> 230 ;
231 [label="Fare <= 7.988\ngini = 0.444\nsamples = 3\nvalue = [1, 2]"] ;
229 -> 231 ;
232 [label="gini = 0.5\nsamples = 2\nvalue = [1, 1]"] ;
231 -> 232 ;
233 [label="gini = 0.0\nsamples = 1\nvalue = [0, 1]"] ;
231 -> 233 ;
234 [label="gini = 0.0\nsamples = 2\nvalue = [2, 0]"] ;
224 -> 234 ;
235 [label="gini = 0.0\nsamples = 1\nvalue = [0, 1]"] ;
223 -> 235 ;
236 [label="Fare <= 7.91\ngini = 0.124\nsamples = 75\nvalue = [70, 5]"] ;
126 -> 236 ;
237 [label="gini = 0.0\nsamples = 23\nvalue = [23, 0]"] ;
236 -> 237 ;
238 [label="Fare <= 7.988\ngini = 0.174\nsamples = 52\nvalue = [47, 5]"] ;
236 -> 238 ;
239 [label="Age <= 38.0\ngini = 0.5\nsamples = 4\nvalue = [2, 2]"] ;
238 -> 239 ;
240 [label="gini = 0.0\nsamples = 1\nvalue = [1, 0]"] ;
239 -> 240 ;
241 [label="Age <= 41.5\ngini = 0.444\nsamples = 3\nvalue = [1, 2]"] ;
239 -> 241 ;
242 [label="gini = 0.5\nsamples = 2\nvalue = [1, 1]"] ;
241 -> 242 ;
243 [label="gini = 0.0\nsamples = 1\nvalue = [0, 1]"] ;
241 -> 243 ;
244 [label="Age <= 61.0\ngini = 0.117\nsamples = 48\nvalue = [45, 3]"] ;
238 -> 244 ;
245 [label="Fare <= 13.25\ngini = 0.083\nsamples = 46\nvalue = [44, 2]"] ;
244 -> 245 ;
246 [label="Fare <= 12.762\ngini = 0.159\nsamples = 23\nvalue = [21, 2]"] ;
245 -> 246 ;
247 [label="gini = 0.0\nsamples = 16\nvalue = [16, 0]"] ;
246 -> 247 ;
248 [label="Age <= 45.0\ngini = 0.408\nsamples = 7\nvalue = [5, 2]"] ;
246 -> 248 ;
249 [label="Age <= 38.0\ngini = 0.5\nsamples = 4\nvalue = [2, 2]"] ;
248 -> 249 ;
250 [label="gini = 0.5\nsamples = 2\nvalue = [1, 1]"] ;
249 -> 250 ;
251 [label="gini = 0.5\nsamples = 2\nvalue = [1, 1]"] ;
249 -> 251 ;
252 [label="gini = 0.0\nsamples = 3\nvalue = [3, 0]"] ;
248 -> 252 ;
253 [label="gini = 0.0\nsamples = 23\nvalue = [23, 0]"] ;
245 -> 253 ;
254 [label="Age <= 66.0\ngini = 0.5\nsamples = 2\nvalue = [1, 1]"] ;
244 -> 254 ;
255 [label="gini = 0.0\nsamples = 1\nvalue = [0, 1]"] ;
254 -> 255 ;
256 [label="gini = 0.0\nsamples = 1\nvalue = [1, 0]"] ;
254 -> 256 ;
257 [label="gini = 0.0\nsamples = 1\nvalue = [0, 1]"] ;
93 -> 257 ;
258 [label="SibSp <= 1.5\ngini = 0.47\nsamples = 45\nvalue = [28, 17]"] ;
92 -> 258 ;
259 [label="Age <= 41.5\ngini = 0.497\nsamples = 37\nvalue = [20, 17]"] ;
258 -> 259 ;
260 [label="Age <= 23.5\ngini = 0.493\nsamples = 25\nvalue = [11, 14]"] ;
259 -> 260 ;
261 [label="Age <= 17.5\ngini = 0.278\nsamples = 6\nvalue = [5, 1]"] ;
260 -> 261 ;
262 [label="gini = 0.0\nsamples = 1\nvalue = [0, 1]"] ;
261 -> 262 ;
263 [label="gini = 0.0\nsamples = 5\nvalue = [5, 0]"] ;
261 -> 263 ;
264 [label="Age <= 27.5\ngini = 0.432\nsamples = 19\nvalue = [6, 13]"] ;
260 -> 264 ;
265 [label="gini = 0.0\nsamples = 5\nvalue = [0, 5]"] ;
264 -> 265 ;
266 [label="Age <= 30.35\ngini = 0.49\nsamples = 14\nvalue = [6, 8]"] ;
264 -> 266 ;
267 [label="Fare <= 61.548\ngini = 0.278\nsamples = 6\nvalue = [5, 1]"] ;
266 -> 267 ;
268 [label="Age <= 28.85\ngini = 0.444\nsamples = 3\nvalue = [2, 1]"] ;
267 -> 268 ;
269 [label="gini = 0.0\nsamples = 1\nvalue = [1, 0]"] ;
268 -> 269 ;
270 [label="gini = 0.5\nsamples = 2\nvalue = [1, 1]"] ;
268 -> 270 ;
271 [label="gini = 0.0\nsamples = 3\nvalue = [3, 0]"] ;
267 -> 271 ;
272 [label="SibSp <= 0.5\ngini = 0.219\nsamples = 8\nvalue = [1, 7]"] ;
266 -> 272 ;
273 [label="gini = 0.0\nsamples = 4\nvalue = [0, 4]"] ;
272 -> 273 ;
274 [label="Fare <= 67.925\ngini = 0.375\nsamples = 4\nvalue = [1, 3]"] ;
272 -> 274 ;
275 [label="gini = 0.0\nsamples = 2\nvalue = [0, 2]"] ;
274 -> 275 ;
276 [label="Age <= 37.0\ngini = 0.5\nsamples = 2\nvalue = [1, 1]"] ;
274 -> 276 ;
277 [label="gini = 0.0\nsamples = 1\nvalue = [1, 0]"] ;
276 -> 277 ;
278 [label="gini = 0.0\nsamples = 1\nvalue = [0, 1]"] ;
276 -> 278 ;
279 [label="Age <= 47.0\ngini = 0.375\nsamples = 12\nvalue = [9, 3]"] ;
259 -> 279 ;
280 [label="gini = 0.0\nsamples = 3\nvalue = [3, 0]"] ;
279 -> 280 ;
281 [label="Age <= 48.5\ngini = 0.444\nsamples = 9\nvalue = [6, 3]"] ;
279 -> 281 ;
282 [label="gini = 0.0\nsamples = 1\nvalue = [0, 1]"] ;
281 -> 282 ;
283 [label="Fare <= 78.244\ngini = 0.375\nsamples = 8\nvalue = [6, 2]"] ;
281 -> 283 ;
284 [label="gini = 0.0\nsamples = 3\nvalue = [3, 0]"] ;
283 -> 284 ;
285 [label="Fare <= 99.994\ngini = 0.48\nsamples = 5\nvalue = [3, 2]"] ;
283 -> 285 ;
286 [label="Age <= 50.5\ngini = 0.444\nsamples = 3\nvalue = [1, 2]"] ;
285 -> 286 ;
287 [label="gini = 0.0\nsamples = 1\nvalue = [0, 1]"] ;
286 -> 287 ;
288 [label="Fare <= 79.425\ngini = 0.5\nsamples = 2\nvalue = [1, 1]"] ;
286 -> 288 ;
289 [label="gini = 0.0\nsamples = 1\nvalue = [0, 1]"] ;
288 -> 289 ;
290 [label="gini = 0.0\nsamples = 1\nvalue = [1, 0]"] ;
288 -> 290 ;
291 [label="gini = 0.0\nsamples = 2\nvalue = [2, 0]"] ;
285 -> 291 ;
292 [label="gini = 0.0\nsamples = 8\nvalue = [8, 0]"] ;
258 -> 292 ;
}